#include <stdio.h>
#include <stdlib.h>
#include <dirent.h>
#include <ios>
#include <iostream>
#include <iterator>
#include <string.h>
#include <string>
#include <stdlib.h>
#include <fstream>
#include <stdexcept>
#include <opencv2/opencv.hpp>
#include <opencv2/highgui/highgui.hpp>
#include <opencv2/ml/ml.hpp>
#include <cctype>
#include <vector>

// Input: $./detect [threshold] [img_path] [dscriptor_path] [store_img] [res_dir]
// Output: 
//          * RESULT: empty
//          * RESULT: [left_pos]/[right_pos]/[img_cols]/[thres]

// UPDATE: ignore the up 15% and lower 1/3 of the input image
#define MARGIN 0

#define RESULT_HEADER "RESULT: "
#define SPLITTER "/"

static string res_dir = "res/";

using namespace std;
using namespace cv;

string getFileName(string fname) {
    int startPos = fname.find_last_of("/");
    return fname.substr(startPos + 1, fname.length());
}

Rect getCroppingRec(Mat& img, int x, int y, int width, int height) {
    int x_res = (x - MARGIN < 0) ? 0: (x - MARGIN); // 
    int y_res = (y - MARGIN < 0) ? 0: (y - MARGIN); // 
    int width_res = (x + width + MARGIN > img.cols) ? (img.cols - x_res - 1) : (x + width + MARGIN - x_res - 1);    // 
    int height_res = (y + height + MARGIN > img.rows) ? (img.rows - y_res - 1) : (y + height + MARGIN - y_res - 1); // 
    return Rect(x_res, y_res, width_res, height_res);
}

static void storeResult(const vector<Rect>& found, Mat& imageData, string res_name) {
    if (found.size() < 1)
        return;
    vector<Rect>::const_iterator r = found.begin();
    Rect temp_croppingRec = getCroppingRec(imageData, (int)r->x, (int)r->y, (int)r->width, (int)r->height); // Setup a rectangle (x, y, width, height)
    Mat res = imageData(temp_croppingRec);  // get the cropped image
    imwrite(res_dir + res_name, res);
}

static void readDescriptorFromFile(vector<float>& descriptorVector, const string fileName) {
    ifstream ifs(fileName.c_str());
    string str;
    int count = 0;
    while (ifs >> str) {
        descriptorVector.push_back(atof(str.c_str()));
        count++;
    }
    cout << endl;
    printf("reading vector success\n");
    ifs.close();
}

static void showDetections(const vector<Rect>& found, Mat& imageData) {
    vector<Rect> found_filtered;
    size_t i, j;
    for (i = 0; i < found.size(); ++i) {
        Rect r = found[i];
        for (j = 0; j < found.size(); ++j)
            if (j != i && (r & found[j]) == r)
                break;
        if (j == found.size())
            found_filtered.push_back(r);
    }
    for (i = 0; i < found_filtered.size(); i++) {
        Rect r = found_filtered[i];
        rectangle(imageData, r.tl(), r.br(), Scalar(64, 255, 64), 3);
    }
    imshow("HOG custom detection", imageData);
    waitKey(0);
}

static void detectImages(const HOGDescriptor& hog, const double threshold, string img_path, int store_img, Size winStride) {
    printf("detecting... %s\n", img_path.c_str());
    Mat imageData = imread(img_path, 1);
    vector<Rect> found;
    Size padding(Size(0, 0));
    double hitThreshold = threshold;
    hog.detectMultiScale(imageData, found, hitThreshold, winStride, padding);
    while (found.size() > 1) { // increase the thres until only one obj left
        hitThreshold += 0.1;
        printf("try thres %f\n", hitThreshold);
        hog.detectMultiScale(imageData, found, hitThreshold, winStride, padding);
    }
    if (found.size() != 1)
        cout << RESULT_HEADER << " empty" << endl;
    else {
        cout << RESULT_HEADER << (found[0].x)
            << SPLITTER << (found[0].x + found[0].width - 1)
            << SPLITTER << imageData.cols 
            << SPLITTER << hitThreshold << endl; 
        if (store_img)
            storeResult(found, imageData, getFileName(img_path));
    }
    // showDetections(found, imageData); // display the res image
}

int main(int argc, char** argv) {
    vector<std::string> args(argc);     
    for (int i = 0; i < argc; ++i){
        args[i] = argv[i];
    }

    double threshold = stod(args[1].c_str());
    string img_path = args[2];
    descriptorVectorFile = args[3];
    int store_img = stoi(args[4].c_str());
    res_dir = args[5];

    int WSIZE_WIDTH = stoi(args[6].c_str()); // window size
    int WSIZE_HEIGHT = stoi(args[7].c_str());

    int BSIZE_WIDTH = stoi(args[8].c_str()); // block size
    int BSIZE_HEIGHT = stoi(args[9].c_str());

    int BSTRIDE_WIDTH = stoi(args[10].c_str()); // block stride
    int BSTRIDE_HEIGHT = stoi(args[11].c_str());

    int CSIZE_WIDTH = stoi(args[12].c_str()); // cell size
    int CSIZE_HEIGHT = stoi(args[13].c_str());

    HOGDescriptor hog; // Use standard parameters here
    hog.winSize = Size(WSIZE_WIDTH, WSIZE_HEIGHT); // Default training images size as used in paper
    hog.cellSize = Size(CSIZE_WIDTH, CSIZE_HEIGHT); // cell size 
    hog.blockSize = Size(BSIZE_WIDTH, BSIZE_HEIGHT); // blocksize 
    hog.blockStride = Size(BSTRIDE_WIDTH, BSTRIDE_HEIGHT); // blockstride
    vector<float> descriptorVector;
    readDescriptorFromFile(descriptorVector, descriptorVectorFile);
    hog.setSVMDetector(descriptorVector);

    // hog, thres, img_path, store_img, win_stride_size (same as cell size)
    detectImages(hog, threshold, img_path, store_img, Size(CSIZE_WIDTH, CSIZE_HEIGHT)); 

    printf("Finished\n");
    return EXIT_SUCCESS;
}
